-0.995247,-0.122171,4.73646,
-0.692423,-6.1386,1.94937,
-0.206417,-5.42845,2.03759,
-1.71709,0.848391,7.59184,
-0.494772,-5.38535,3.03155,
-1.72891,3.91598,7.79704,
-1.66311,0.809733,6.0358,
-0.380494,-4.3103,3.56135,
-1.71547,-7.57746,7.66716,
-0.216844,12.7291,6.51492,
-0.0810897,-3.61113,1.82655,
-0.733134,-0.193583,2.58235,
-0.483727,-5.07886,1.94484,
-1.63248,-3.46962,7.68109,
-0.419216,-4.22336,1.84506,
-2.33854,-5.17153,5.7264,
-1.00281,0.274402,4.38606,
-0.421708,-6.72003,1.31984,
-2.78416,15.7009,2.51051,
-8.06098,-4.18816,2.83512,
-3.10835,10.2647,2.29589,
-2.53713,-2.05464,6.99146,
9.33216,12.3718,5.82169,
-4.48377,16.3317,7.48407,
-0.0523104,-3.74746,1.1403,
-1.92986,-3.39528,6.18369,
-0.513988,-2.34644,4.42939,
0.692078,-6.98148,-1.59401,
-1.70636,1.91432,5.34453,
-0.642934,-5.10305,4.02026,
-0.0909517,-2.57756,3.93358,
1.19626,-6.63054,-2.99941,
-0.132571,-3.20538,1.30635,
-1.3372,-1.96303,5.39177,
-0.214564,-3.67117,1.09776,
-1.70834,-3.30551,5.69667,
-2.15123,-9.27104,-3.67156,
-4.7858,-4.46763,15.3792,
-0.445627,-4.58716,1.01673,
-2.36905,-4.93433,7.49887,
-0.0882797,-3.93832,1.75025,
-1.16995,-2.62724,5.82303,
-1.03198,-0.509614,5.03337,
-0.578743,-6.70846,1.74037,
-0.335459,-4.84041,2.41977,
-1.51367,-0.586001,4.86871,
0.188238,-2.9293,0.838106,
-1.64387,-4.84385,4.27021,
-0.515168,-4.16427,3.1136,
-1.36898,1.83294,5.13466,
-0.219224,-4.29081,1.34139,
-1.75993,-3.83216,5.55449,
-0.507353,-5.12197,2.8387,
-1.83892,2.55305,7.12959,
-4.01858,13.4555,2.04812,
-7.25912,-2.84008,3.84329,
-1.96938,1.10967,6.52566,
-1.32337,-6.55537,1.05339,
-1.05019,0.969519,5.19477,
0.110806,-5.30701,0.747382,
-2.03258,1.77181,5.79321,
-1.55077,-4.91385,6.18833,
-1.31669,2.0431,5.92254,
-4.4852,-3.41123,8.93381,
-1.36829,0.698817,4.94774,
-1.09637,-5.77124,4.44925,
9.29536,12.1097,5.98735,
-4.43808,16.8022,7.23142,
-0.697091,-1.88077,4.87693,
0.818341,-8.79106,-1.5722,
-0.123086,-3.65163,1.29427,
-1.27466,-3.07719,5.70259,
-2.46616,2.4449,6.58895,
-1.48785,-2.19355,5.21265,
-1.81583,0.0873457,5.93692,
-1.76701,-6.55496,1.19847,
-0.849933,-4.23689,2.24945,
-1.12086,-1.90124,4.10705,
-0.827129,-3.92537,2.85679,
-1.22757,0.471898,4.01337,
-0.813106,-4.41247,3.06273,
-1.63567,-1.73859,5.15542,
-1.84058,0.334696,6.5173,
-1.75763,-5.50642,1.16366,
-0.460132,-4.9587,1.61236,
-1.60426,-3.4371,6.9407,
-0.819374,-4.77896,3.00581,
-1.19977,-1.84805,5.35445,
-0.820541,-9.30067,-2.48672,
-5.68016,-3.59149,14.7056,
-0.585495,-6.14858,2.96053,
-0.719545,-0.334807,8.43263,
-0.811387,-1.12551,3.60944,
0.479098,-8.63693,-1.07992,
-2.445,-10.3391,-3.29492,
-5.06199,-4.66246,15.6402,
-2.27972,-9.43702,-3.60757,
-4.50395,-5.12285,14.9066,
-0.718406,-4.20929,1.94489,
-1.76611,-1.55872,5.04923,
-0.338604,-6.23371,2.39747,
-1.73459,0.263991,9.53916,
-0.689021,-4.64394,2.76517,
-1.52569,-1.83017,4.67245,
-0.596178,-4.78594,2.42677,
-1.24494,-2.02267,3.81503,
-0.605195,-1.75375,3.65691,
0.545294,-7.62352,-1.25068,
-0.524105,-3.97758,1.28094,
-1.74374,-3.09831,5.12548,
-0.715603,-4.93255,2.49043,
-1.44871,-3.71327,3.60513,
-0.634865,-4.36754,1.55538,
-1.6831,-3.37673,5.94632,
-5.90843,14.516,1.60792,
-6.21426,-3.66563,4.71148,
-1.72982,-0.0874889,6.28951,
-1.4804,-4.76337,1.0937,
-0.575163,-6.88082,3.45338,
-0.510219,4.08671,9.31628,
-0.123657,-2.72468,3.78893,
1.72057,3.14243,7.99415,
-1.47309,10.0378,-0.0950489,
-0.463798,-3.09656,1.44922,
-0.377359,-4.52627,1.93546,
-1.37148,1.14532,4.62185,
-0.241675,-3.62341,2.32858,
-0.896152,1.97282,3.80443,
-1.22724,4.82455,1.46979,
-0.174169,-4.28565,1.93559,
0.0908002,0.162544,2.74387,
-1.11063,4.14192,2.53098,
-0.484348,-3.39124,2.90448,
-1.31063,2.5731,4.65001,
-1.48152,5.31349,1.59344,
-0.422559,-3.48917,1.91236,
0.0115538,-2.52027,2.1424,
-1.04911,3.7487,2.83507,
-0.262227,-4.26863,1.19606,
0.0263151,-3.54308,0.757158,
-1.00458,2.01633,3.588,
-0.48186,1.27917,2.55215,
0.0997969,-3.90888,0.62643,
0.184473,-5.10594,-0.720634,
-0.719104,-3.8914,1.64486,
-0.626816,-5.47813,2.51523,
-0.991346,-0.120953,4.34221,
5.26539,6.10628,3.35809,
-1.98646,23.3144,1.43769,
-15.4356,-5.19368,4.17168,
-0.339952,-4.4832,2.91138,
-1.37021,3.11278,4.47544,
-1.86019,6.82308,1.73291,
-0.263358,-2.45425,0.392825,
-0.25289,-5.89114,1.3204,
-0.742665,0.0907924,4.04989,
-0.605115,0.271904,3.99549,
-0.476249,-3.3898,2.2981,
0.940271,-6.6572,-2.05724,
-0.225855,-3.70228,1.85705,
0.397964,-4.42174,0.0386015,
-0.751233,1.64755,3.14284,
-2.37719,1.80859,9.36809,
-0.75084,-13.5086,-0.824874,
5.84615,-3.74306,3.89766,
-0.440916,-3.36223,1.31088,
-0.345095,-5.07648,2.13656,
-0.905567,1.46567,3.41075,
-1.28785,3.38315,3.043,
-2.13505,7.74301,3.71788,
-0.642197,-1.9004,-0.262259,
-0.636249,-3.76219,3.1156,
-2.09263,2.61079,7.37734,
-1.50794,8.67657,0.408165,
-2.45581,-9.3816,10.6944,
2.48096,20.6984,12.8998,
7.18685,-1.45286,16.5297,
-0.616157,0.0119848,2.35807,
-1.2664,2.58576,3.82311,
-0.335229,-2.90041,2.16667,
-0.205006,-2.66668,1.09557,
-0.246916,-5.51335,1.70065,
-0.491205,-0.520803,2.31683,
0.0472647,-3.9571,1.16504,
-1.13922,-0.812179,3.8452,
-1.0536,3.51699,3.10636,
-0.606112,-3.11023,3.6155,
-0.846421,1.19363,3.78841,
-0.579974,3.86129,0.768172,
-0.714728,-3.25072,3.76463,
-1.32448,1.56791,5.70824,
-1.61843,6.81717,1.44984,
-0.235717,-2.64531,0.596919,
-0.207548,-6.29535,1.63858,
-1.11061,-0.0614607,4.99587,
-0.198381,-2.00219,1.02841,
-0.43338,-3.79121,-0.386951,
-0.0335103,-2.02652,2.23941,
-0.149274,-2.76737,0.379102,
-0.543204,-4.85307,2.37185,
-1.419,1.31294,5.18693,
-0.19685,-2.97883,1.26399,
0.228939,-5.40613,0.599481,
-0.543916,0.968366,3.27305,
-0.201243,0.3274,0.438996,
-1.38667,2.69361,4.48443,
0.131124,-2.04697,1.87788,
-0.423064,-3.43185,2.57446,
-1.0563,-1.13009,3.72685,
-0.917865,1.98566,1.25219,
-0.370745,-3.55766,3.09384,
-1.73569,3.14682,5.47619,
-1.60537,6.01091,1.55225,
0.0481389,-3.13549,0.724452,
-0.0842706,-4.24412,0.75245,
-0.832752,0.0673528,3.72818,
7.17485,11.8703,4.44568,
-3.35725,22.7568,1.67029,
-12.0339,-5.25673,3.271,
0.145411,-3.9808,1.59885,
-0.512664,0.739307,3.71078,
-1.68352,5.79121,2.51455,
-0.249957,-3.30218,2.51746,
-1.66613,2.46997,6.11955,
-1.54857,4.96992,2.15868,
-1.7425,-1.02007,17.9002,
-4.83214,-17.2075,-0.971906,
-3.10815,-16.2104,17.0574,
0.0296958,-1.23986,1.09149,
-0.239947,-4.72118,1.12022,
-1.19981,-2.04395,3.67227,
-0.0905705,-3.07621,2.53063,
-0.720239,1.91908,2.57117,
-1.10928,4.02614,2.13191,
-0.467807,-1.62353,4.2537,
-0.0203369,-5.58159,-0.386024,
1.72504,-4.44676,-5.22589,
-0.731272,0.92147,3.3771,
-1.49068,2.85206,6.24536,
-0.249845,-2.70787,-0.331054,
-0.0845641,-3.86712,2.35459,
-1.57781,0.789293,5.43789,
-1.86171,7.88596,2.21116,
0.227959,-2.53261,1.04261,
-0.00242825,-3.38927,0.682152,
-1.27085,1.24693,4.35495,
0.212981,0.853828,2.0543,
-1.08516,3.94157,2.45717,
0.0471624,-2.34284,1.78368,
-0.156812,1.11606,2.67751,
-2.92818,7.90543,5.08631,
-1.80827,-0.873606,1.70204,
-0.0846145,-3.80171,2.36882,
-0.739563,1.29915,3.64037,
-1.35418,4.82757,1.59981,
-0.49537,-0.780935,4.39982,
-0.839052,-3.21457,2.88822,
1.20648,-6.48875,-2.71803,
-0.0127309,-3.128,1.38381,
-0.65008,-4.21303,1.7037,
-0.885045,0.0288843,2.71162,
0.0380883,-2.32841,3.98349,
0.590808,6.84757,7.34825,
-0.405674,10.2661,-4.98291,
0.0342021,-4.1478,1.1556,
-1.94814,-1.24618,6.15854,
-1.51415,5.75014,3.32797,
0.0136067,-3.55556,1.88034,
-0.596569,0.711813,3.22693,
-1.62224,4.37965,3.34645,
0.198102,-1.13574,3.71656,
0.0625586,-4.77759,-0.209616,
0.768467,-3.82216,-3.31908,
0.214314,-3.60664,0.891185,
-1.16124,-4.60331,4.03135,
-0.788667,1.5004,4.17143,
0.116657,1.08506,2.37442,
-1.30386,2.41452,4.0674,
0.361274,-5.27542,0.455393,
0.55796,-2.84433,0.53484,
-0.226102,-3.94037,0.641549,
0.180388,0.779096,2.54897,
-0.0162446,0.527762,3.63871,
-0.640491,-2.21401,1.63414,
0.795809,-6.9131,-1.41575,
0.382766,-3.08057,0.827923,
-1.11322,-2.98756,3.41888,
-1.22619,2.64804,3.6908,
-2.29119,-0.950709,9.20484,
0.34782,-13.0878,-1.24686,
1.92393,-4.5311,-1.2029,
-0.67314,-1.3641,4.24994,
0.370758,-9.58655,-0.764157,
1.41242,-4.77164,-4.02895,
0.284379,-4.05076,0.460781,
-0.955186,-2.75638,2.38607,
-1.31277,3.16158,4.87521,
-0.625059,-0.127324,3.38382,
-0.865879,-3.30873,4.68902,
0.523169,-5.89082,-1.49304,
-0.388075,-4.62547,1.8273,
-1.32581,-0.587402,4.51037,
-1.85948,6.0379,3.96177,
-1.2802,-0.0503674,1.83466,
-0.659943,-0.118907,2.83907,
0.202586,-2.84347,0.996393,
0.508918,-4.78388,-1.19498,
-0.156892,-2.59747,0.0955613,
-0.918812,0.869126,4.23792,
-0.0135638,0.551169,3.28164,
0.0119529,-3.22318,-0.651761,
0.561074,-4.70846,-1.65548,
-0.785826,0.658563,2.95742,
-0.618105,-1.43741,2.11596,
0.638089,-5.3375,-1.52389,
-0.572799,-3.46432,1.25038,
-0.7698,-2.92264,2.73719,
-1.15124,-2.01989,3.58287,
-1.6156,4.26446,3.90272,
-0.840447,4.65982,-0.121054,
-0.728957,0.638181,3.10839,
-0.318041,-2.9734,1.39541,
1.05664,-4.59968,-2.60558,
-0.470139,-1.19627,-0.459772,
-0.884794,0.402001,3.61847,
0.351397,-1.14488,2.10113,
0.334443,-4.43185,-0.925509,
-0.294296,-3.41504,-0.567534,
-1.00737,-2.25847,1.4579,
-2.40335,-4.58921,8.15827,
-0.564796,7.89776,3.61115,
-0.306181,6.2075,-2.94751,
-0.817687,-1.25499,1.69737,
-1.6867,4.6104,4.00822,
-2.05092,10.5346,0.864922,
-1.25532,0.952417,-0.610316,
-1.20463,1.61047,3.8251,
-1.15976,3.38452,3.22267,
-0.822438,-2.2449,-0.244637,
-0.175843,-3.72381,1.11583,
-0.865019,-2.03156,3.36419,
-1.38653,-0.547192,4.67517,
-1.72934,5.56368,2.91379,
-0.2514,3.04099,0.189083,
-0.240146,-3.0162,0.807785,
0.759651,-1.55706,0.883306,
-0.681601,0.359754,0.662914,
-1.2563,3.72277,3.22703,
-0.76914,2.19766,2.52664,
0.769626,0.622729,1.0897,
0.658208,-1.57272,0.0827162,
0.35017,-3.2717,0.269196,
-2.64853,-9.15713,3.85307,
-6.88673,3.18594,10.009,
-1.55222,22.1645,2.09132,
-6.21396,0.311902,-0.368875,
-0.73795,2.53907,0.839749,
-1.62488,2.6981,8.06897,
0.125731,6.01832,-1.24352,
-1.46837,-4.4251,-5.31169,
-0.699845,2.39309,3.3962,
-0.599448,-0.916395,-0.464359,
0.857949,-6.59617,-1.00436,
-0.953256,-2.83451,1.77347,
-0.840375,0.326399,2.34799,
-1.16279,1.97565,3.11278,
-0.280891,-3.88711,1.35225,
-0.280301,-4.5026,0.120729,
-0.466404,-3.0373,1.08235,
-0.620823,-1.07148,2.69568,
-1.64832,5.014,2.93319,
0.0791924,0.365202,2.64745,
-0.349909,-3.85626,1.54755,
-0.217982,-2.95015,1.66264,
-1.01791,1.46315,1.59306,
-1.17816,2.75437,2.83938,
-0.193086,-4.24355,1.97257,
-0.41802,-0.555541,2.40009,
-0.0635265,1.31781,0.76155,
-0.729895,2.79872,1.17376,
-0.203452,-3.59045,1.64564,
-1.0184,-2.42194,4.56812,
-0.580026,0.0624379,2.34636,
-0.638723,3.44934,2.05571,
0.916662,-5.88662,-0.180124,
-0.945329,-4.16784,8.20862,
4.97473,12.0845,0.615998,
1.23173,13.5071,-4.60294,
-0.565534,-1.41419,2.42127,
0.206985,-3.34294,1.17717,
0.0157375,-4.18055,0.475249,
-0.270074,1.86211,1.79196,
-0.56664,2.03273,2.85156,
-0.739604,0.644483,3.36886,
0.545306,-3.54605,-1.95525,
0.199796,-5.35637,0.595779,
-0.669115,1.23603,3.95859,
-0.578507,0.850045,2.67843,
0.883791,-5.6899,-1.51298,
0.295189,-3.40713,-0.473536,
-0.713923,-2.92745,2.50055,
-1.48394,-2.3568,5.17422,
-1.56315,3.88131,4.62924,
-0.832651,3.93874,-0.228209,
0.0927984,-3.86918,0.248382,
-0.655739,-4.33582,2.58009,
-0.752942,2.12678,2.82631,
-1.05125,4.53443,2.57371,
-2.62811,-6.30491,8.98143,
-4.56036,5.75643,17.3003,
-0.996699,23.4679,3.07286,
7.87752,1.21925,13.0555,
-0.50495,0.941308,2.08578,
0.218966,0.542007,0.821932,
0.386148,-5.48611,-0.0859701,
-1.25217,-3.04816,2.91846,
-0.677388,2.00888,3.16086,
-0.0792467,0.0265674,1.42697,
0.511531,-4.42003,0.00339041,
-0.237667,-3.49324,0.233004,
-0.147161,-3.8325,0.871815,
-0.570706,-5.0785,1.88128,
-1.17327,2.4246,4.85723,
0.119562,-1.19061,2.15126,
-0.134257,-2.84513,0.590455,
-0.525295,-4.70826,1.64522,
-0.924343,-2.1473,2.88293,
-1.07408,1.88648,4.50371,
-0.17618,-0.784626,1.93062,
-2.00455,-2.34868,6.12718,
-1.21668,5.27324,3.02627,
0.410272,-2.40976,-0.888315,
-0.439759,-2.72043,1.95261,
-0.800829,-2.17777,2.33281,
-0.0239329,-3.33779,1.86257,
-1.65647,2.30532,5.28524,
-0.432087,-1.11454,3.54896,
-0.91749,-4.86195,1.84698,
0.649658,-6.6018,-2.10215,
1.84589,-4.06886,-5.71401,
-0.539759,0.239262,3.2377,
-1.27625,0.899336,5.46379,
-0.954723,2.16883,1.59736,
0.0894927,-3.04472,-1.65185,
-0.0420812,-2.86946,0.635045,
0.034031,-4.02268,0.301115,
0.196506,0.0640649,2.28415,
-1.28396,3.16492,3.78381,
0.0285037,-2.89528,0.597291,
0.496497,-3.74347,-0.112319,
-0.369507,2.53653,1.86545,
-1.18045,2.50846,3.07686,
0.176366,-3.88696,-0.706308,
-0.538081,-6.04826,2.69818,
-1.50294,1.48676,5.61281,
-0.955366,3.62274,3.0135,
-0.373655,-2.37645,3.17338,
-0.0972937,-4.14908,-0.216456,
0.369438,-3.95952,-2.59084,
0.50788,0.848347,0.847161,
0.036605,1.88253,1.10943,
-1.0713,3.73699,3.17494,
-1.8121,5.21733,5.2706,
-0.258927,-1.44073,0.182007,
-0.00746574,-1.22199,2.52884,
0.192281,-3.56638,0.0963719,
-0.104743,-4.13791,0.21968,
-0.32729,-0.317612,1.511,
0.232144,-3.83132,0.944575,
-0.464471,-1.53492,3.08782,
-1.07207,2.04598,2.21182,
0.197934,2.24198,0.784057,
-0.656755,2.19185,3.24462,
-0.524279,0.607051,2.71725,
-0.629715,-2.15763,1.49357,
0.543508,-3.10512,-0.0771634,
0.383638,-4.11074,-0.0847704,
-0.268796,-3.76966,1.85695,
-1.36246,1.91932,5.08733,
-0.875036,2.93454,2.57598,
-0.865802,0.724691,4.45371,
-0.555328,3.00404,2.82422,
-0.486105,-3.05548,-0.0685539,
0.53708,-5.62771,-0.434814,
0.310666,-3.11727,-0.00762179,
-0.797384,-2.78555,2.60128,
-0.922953,1.59761,3.30906,
-0.586224,3.94444,1.64973,
0.201089,-0.0586129,3.93629,
-0.12671,-4.58431,-0.204954,
0.783176,-4.36563,-3.68245,
0.238548,-3.50116,-1.42565,
-0.0724659,0.986075,2.06057,
-1.14072,2.46713,3.30433,
0.330729,-1.33431,-0.136215,
0.0957574,-3.77737,0.426692,
-0.222763,1.13786,2.64029,
0.434999,-2.01002,0.121038,
0.116025,-4.09969,0.246485,
-0.940277,-0.192936,2.77481,
0.125033,1.2521,2.17304,
-0.599173,1.15763,3.26792,
0.984467,-5.31056,-1.32023,
0.149853,-3.44586,0.272557,
0.153971,-2.82901,1.07128,
0.110486,-4.12652,1.22696,
-0.73123,-1.81818,0.380787,
-0.49662,2.15246,2.65767,
0.327242,-2.65169,1.08906,
0.304077,-0.395291,1.51528,
-1.43301,4.21021,3.17147,
-0.716824,0.316365,3.87995,
-0.792247,-3.12734,4.24304,
-0.741332,0.140031,5.49962,
-0.531509,5.08857,-0.036938,
0.621763,-1.00124,-3.08655,
0.460966,-0.327591,1.27519,
0.610467,-3.26091,0.244689,
0.505751,-3.29817,-0.856521,
-0.181675,0.474391,1.68008,
-0.19644,1.23052,3.18205,
-0.124299,-1.91691,2.2411,
0.860712,-4.52723,-2.07297,
-0.670905,-0.343557,-0.0173089,
0.3972,-2.38844,1.18579,
-0.574566,0.60392,0.265221,
-0.945617,3.14424,2.59774,
-0.176899,0.92259,2.09449,
0.268845,-2.19354,0.368726,
-1.37605,-1.95775,4.89004,
-1.82579,6.24137,3.64051,
-0.319152,3.66544,0.304407,
-0.0999833,0.866058,2.70861,
-0.975715,0.692739,4.68832,
-0.619572,-3.58798,1.02117,
0.713563,-5.54411,-1.48541,
0.673416,-5.95949,2.79579,
-1.90135,-1.21438,9.81891,
2.16439,13.1033,3.42755,
1.32021,11.53,-8.99794,
0.874042,-0.820509,1.04728,
-0.266226,1.96167,0.519386,
-0.946001,3.39689,1.52651,
-0.56498,1.77058,2.72901,
0.35183,-2.55135,0.821938,
0.785367,1.18208,1.29186,
0.42594,-1.28503,-1.10515,
0.327121,-5.01603,-0.346717,
-0.585435,-3.93728,1.68555,
-1.03668,-0.996884,3.43511,
0.387412,-2.65584,0.706962,
0.143991,-5.22708,-0.114143,
-0.729177,-1.56767,0.0665294,
-1.15549,-2.25747,4.92372,
-1.17403,0.530696,5.76482,
0.504734,-3.1848,1.17822,
-0.366338,-2.07225,2.54969,
-0.0378522,2.45692,0.748367,
0.107249,2.72306,1.0256,
-0.310264,0.928758,0.738854,
0.683292,-3.02347,1.16083,
-0.409266,-0.503283,1.81282,
0.635183,1.26484,0.53995,
-0.987606,0.718934,0.958045,
-0.173599,3.11577,0.369449,
0.74517,-0.360401,1.31203,
0.0885723,-3.35934,0.299684,
-0.519387,-2.18255,-0.974207,
-0.547331,1.50071,0.268003,
-0.272521,2.0577,2.94425,
-1.02954,0.853835,3.96965,
-0.66027,1.15772,2.65616,
-1.08916,0.620136,0.171842,
0.275683,-2.75205,-0.744585,
0.221004,-5.59763,0.44398,
-0.828789,1.92963,3.14062,
-0.853269,0.824608,0.632607,
-0.363679,-3.57562,-0.201253,
0.520842,-3.85768,-1.1521,
-0.00103169,-3.00614,0.153865,
-0.490233,-3.17206,0.647267,
-0.350493,-3.15156,0.515763,
-0.752077,0.423352,1.39422,
-0.187247,2.73268,1.7754,
0.0369264,1.10997,1.2817,
-0.951714,1.3719,2.02598,
-0.846527,0.720489,1.32395,
0.354317,-0.874442,2.50351,
0.142266,-4.40817,-1.00066,
0.345781,-3.78525,-0.681859,
-0.61042,-2.12545,0.619284,
0.543191,-3.16051,-0.475034,
0.324927,-1.90811,0.592155,
-0.00985918,1.22212,0.287631,
-0.616866,2.43348,2.41225,
-0.809384,-1.50489,1.31417,
-0.751648,0.133477,3.55865,
-0.303541,-4.1748,1.09643,
-0.33744,-3.40067,1.93199,
-1.49737,4.86776,3.42967,
-0.363906,-3.5229,1.32839,
-0.388514,-2.00209,1.06837,
-0.252351,-0.287487,1.70202,
-0.898666,0.474802,1.56127,
-0.833903,2.38305,2.41897,
-0.930542,-0.0301387,3.15033,
-1.24114,2.73983,3.17647,
-0.748183,1.16098,1.303,
-0.156412,-3.73077,0.549698,
-0.197219,-2.86022,0.235456,
-0.411951,-2.86523,0.483888,
0.477246,-2.6985,-0.619483,
-0.163456,0.509934,0.988319,
-1.54118,3.35681,4.06811,
-0.978504,1.83195,3.58344,
-0.85925,0.132016,2.69975,
-1.20402,2.85652,1.20472,
-0.575633,2.08114,2.05071,
-0.506749,0.704025,2.45824,
0.345902,-2.78938,0.495869,
-0.969883,-2.35849,3.90576,
-1.33014,-0.702386,4.76079,
-0.246108,4.28787,-0.278102,
0.73256,-2.30694,-2.30616,
0.0840327,-3.6615,-0.00819795,
-0.165515,-3.7028,1.15122,
-0.152047,-0.773694,2.54011,
-1.05422,1.30974,3.80667,
-1.1849,2.54021,1.38891,
-0.421941,2.65616,0.994434,
-0.394338,5.32897,-1.87541,
-1.56283,-3.16641,0.855309,
1.29658,-6.99411,5.56045,
-1.57013,10.0041,3.25389,
-2.90363,1.35237,2.14914,
-0.689377,-2.12094,1.34563,
-0.113489,-3.16991,1.33552,
-0.31645,-1.23689,0.909995,
-0.738102,3.09613,2.34257,
-0.236659,1.92917,2.21332,
-0.41775,-3.03804,1.26463,
-0.434835,-4.38516,1.40059,
-0.619788,-1.92579,0.42855,
-0.569928,-1.17392,0.54477,
-1.04601,2.08841,3.99594,
-0.606456,-0.0450371,2.05876,
-0.476372,2.64411,2.19095,
-0.137754,1.50226,2.79475,
0.700594,-2.08488,-0.592597,
0.508809,-3.97915,-0.151514,
-0.76877,1.84714,3.48579,
-0.611144,2.0493,2.74085,
-0.779045,-1.2811,2.66942,
-0.13917,-2.09357,0.406753,
0.803394,-3.89606,-1.42336,
-0.592789,-1.38287,1.20163,
-0.194875,-2.96257,0.566041,
0.300168,-4.09411,0.784335,
0.0612353,2.00931,1.83948,
-1.16017,3.61114,3.03789,
0.00266636,-3.84768,-0.0230851,
0.0805536,-4.2689,0.717162,
-1.03953,-0.128645,3.18254,
-0.985956,-1.19831,4.21421,
-1.35036,3.84586,3.05229,
-0.79252,2.84973,2.28181,
-0.703143,2.14765,2.70867,
-0.516734,-2.04479,3.76174,
-1.09774,-0.779082,3.12003,
0.442172,-1.64313,-1.63208,
-0.52542,-2.24626,2.05323,
-0.314077,0.719642,2.10077,
-0.527089,2.70787,2.19303,
-1.35424,3.46815,3.4814,
0.356396,-0.100809,1.10999,
-0.171559,-3.67963,0.762284,
-0.776781,-2.28715,2.86979,
-0.851878,4.00205,1.63706,
-0.272932,2.20491,1.18068,
0.318654,0.469572,1.69366,
-0.855186,0.690002,3.58484,
-0.585831,1.17325,2.84699,
0.122427,-0.768257,1.62969,
0.0405255,-3.04448,-0.375994,
-0.353648,-3.02767,-0.803179,
-0.507727,-0.686322,2.07059,
0.202326,-2.21964,0.0329376,
-0.285266,-3.60263,0.362962,
-0.897082,-1.91546,1.6839,
-0.120124,1.79709,1.78364,
0.245561,-4.29427,0.433001,
-0.950412,-3.08125,2.81245,
-0.994705,3.92222,2.66465,
0.239606,1.36336,2.65825,
-0.539314,0.902924,3.09701,
-0.241881,-3.14054,0.576839,
0.0416055,-2.61028,0.572952,
-1.09468,3.75,2.71996,
-0.576719,0.755123,2.34515,
-0.0540948,-4.7173,0.993508,
-0.0456106,-3.91772,1.59715,
-0.698568,-2.20053,1.02939,
-0.529952,0.998558,2.43818,
-0.469346,3.08463,1.72382,
-0.345553,2.02668,2.51476,
-0.261627,0.208234,1.23568,
0.700088,-2.41143,-1.60182,
0.352881,-4.16772,0.570329,
-0.519797,-1.11942,3.03111,
-0.881826,3.49086,3.21964,
-2.62363,-5.04532,2.54472,
-3.797,-9.2874,10.2896,
2.94415,-14.3717,-3.99259,
-9.92319,-1.55554,19.9068,
-1.82582,19.7315,7.3186,
-0.352626,-0.122385,2.40969,
-0.701839,3.84572,2.0554,
-1.00548,2.69353,3.12206,
0.0388281,-2.45425,0.526936,
0.08887,-3.3788,-0.292305,
-0.0875341,-2.35988,0.366183,
0.191261,-2.83313,0.190884,
-0.796128,1.33315,1.77901,
-0.619535,1.91229,1.31755,
0.17295,0.626177,1.86269,
-0.349285,-0.222214,1.80849,
-0.487593,-2.75296,1.46061,
0.653874,-4.62877,-1.30651,
-0.882986,-1.40647,1.0168,
-1.06296,1.18117,3.83471,
-0.197382,-1.8167,0.747245,
0.562746,-3.76334,-0.0808787,
0.241132,-1.18952,1.33255,
-0.838489,2.67912,3.07954,
-0.248772,1.6291,1.79005,
-0.144836,-2.3395,2.2215,
-0.844078,0.375684,2.41308,
-1.03316,0.674323,2.77736,
-1.2216,4.09234,1.16356,
-0.53516,2.76601,-0.329969,
0.148842,-1.43632,-0.627541,
0.7989,1.01102,0.596811,
-1.21917,3.69416,3.3399,
-0.796466,0.355287,3.51795,
0.480846,-4.07346,0.566618,
0.024426,1.2704,2.13676,
0.253458,1.15227,-0.117111,
0.346373,-2.3115,-1.40558,
0.366219,-4.94136,0.397406,
0.0894868,-2.21187,2.00084,
0.0856031,-2.94003,0.257248,
-0.29671,-4.11837,1.68677,
-1.04345,1.32985,4.21721,
-1.28609,4.69625,3.00466,
-0.485255,-1.37926,2.00473,
0.254968,0.445713,2.90487,
0.396894,-6.49351,-0.882195,
-0.480349,-3.9382,-1.4593,
-0.533816,-0.542409,1.72612,
0.0996873,-3.76438,-1.2094,
-0.138461,-3.50904,1.43002,
-0.665596,-4.25491,3.67295,
-0.451135,1.26334,3.27046,
-0.956566,4.48986,2.0301,
-0.507078,0.0472735,-2.14715,
-0.00960359,-1.82365,1.11827,
0.460861,-3.6995,0.286714,
-0.170032,-1.81763,2.52299,
-0.207465,-0.0793816,1.07494,
-0.960256,2.48302,3.22592,
0.14916,-3.19046,1.11658,
-0.162132,-1.74992,0.561769,
-0.397846,2.16501,0.767285,
-1.05241,2.67945,2.36621,
-0.366402,0.69293,2.84863,
0.119615,-2.89103,1.47331,
0.187505,-1.92846,2.17258,
-0.762908,1.11881,1.76471,
-1.09484,2.19694,1.68885,
-0.451138,1.57768,2.48041,
-0.551402,1.29081,3.91551,
-0.956969,2.47127,4.60314,
-0.965282,-0.1597,-1.35796,
0.480348,-3.63803,-1.66541,
0.307325,-4.90008,-0.219237,
0.0407835,-1.15064,-0.259967,
0.410598,-5.15545,-0.965424,
-0.859764,-1.95189,2.8528,
-0.858333,3.20342,2.90747,
-0.543725,-1.98172,2.67429,
0.337579,-1.34831,0.00632848,
0.385516,-2.30846,0.138858,
-0.37211,-0.983092,2.50364,
-1.00771,2.75849,2.32758,
-0.465119,2.53597,1.19802,
-0.0699565,2.30486,2.03255,
-0.139203,1.56489,2.57272,
0.206802,-3.75343,0.542006,
0.378662,-3.92766,-0.993487,
0.687556,0.547896,0.0580089,
0.255259,-1.53851,1.5216,
-0.336605,-2.16578,0.913815,
-0.0512216,-2.97361,0.951114,
0.0584451,-1.19452,0.536771,
-0.798106,2.92893,0.914416,
0.426502,-0.945726,1.56745,
0.781126,-3.30943,-1.00197,
0.870334,-0.830777,-0.191074,
-0.643247,1.98312,1.55098,
-0.711608,1.63182,2.45134,
0.370253,-1.18569,-0.85886,
-0.144214,-3.80901,0.796012,
-0.371647,-3.49736,2.70754,
-1.02038,1.92942,4.39934,
-0.945493,2.71888,1.68158,
0.210102,0.340972,2.58862,
-0.537818,-2.64326,0.170742,
0.272509,-4.23065,-1.07034,
-0.332325,-4.46673,1.03789,
-1.16839,-1.13343,0.977559,
-0.0186296,2.60027,1.77567,
-0.791743,-1.65505,-1.40246,
0.831646,-4.94904,-2.07381,
-0.481136,-2.32335,1.50055,
0.428611,-0.895487,2.55382,
0.0195761,2.21593,1.6102,
-0.743133,2.07954,3.23084,
-0.484657,-1.3696,0.46551,
0.707617,-3.99528,-0.272729,
0.324216,-3.40427,-1.03734,
0.366221,-1.33595,1.7377,
-0.410775,1.76576,2.89961,
-0.967184,2.76358,1.89985,
-0.695576,1.14991,-0.495482,
-0.43223,-1.99628,0.439983,
0.412368,-4.26772,0.833821,
-1.02319,-1.53269,2.28633,
-0.855936,3.52346,2.03105,
-0.184585,0.989856,1.8965,
-0.811159,3.04531,2.1147,
0.16337,-0.00146618,2.97281,
-0.431859,0.850562,1.58055,
-0.322959,2.66418,1.4599,
0.202617,0.577432,0.892425,
0.349031,-2.17683,0.899957,
0.65017,-4.0939,-0.939929,
0.576759,-0.844183,1.39409,
-0.633464,-0.205908,2.70008,
-0.12684,1.26549,1.6443,
-0.994587,3.64813,1.52962,
-0.677778,-0.143012,0.347675,
0.412235,-3.40414,-0.683563,
0.820679,0.113117,0.426312,
-0.86761,2.53824,1.99733,
-1.18031,3.46506,3.06439,
0.344419,1.01743,1.69069,
0.923917,-0.622,-0.242449,
0.656262,-3.46965,0.789388,
0.90614,-1.88489,0.0108029,
0.575369,-1.37859,0.773509,
-0.493562,-0.356005,0.0514075,
-0.103493,1.33019,2.16789,
-0.765011,2.98155,2.24451,
-0.449287,1.29308,1.96327,
0.681102,1.17122,0.36535,
-0.523536,2.86748,2.14692,
0.0872156,0.869699,1.39419,
-0.224849,-2.67239,0.476371,
-0.00322862,-2.72457,1.46683,
-0.174423,-2.56516,0.221669,
0.635478,1.31611,1.41109,
-0.557781,2.82552,2.21185,
0.188877,-1.09741,0.741666,
0.774439,-4.76489,-0.977698,
-0.204108,-3.50327,-0.361831,
-0.291278,0.495201,1.52509,
-1.13386,-0.229118,1.67815,
-1.16372,3.50493,3.23635,
-0.351105,-0.0811775,2.23275,
0.0610153,-2.9527,0.554866,
0.254636,-1.80333,-0.435321,
0.570094,-1.59758,1.51295,
-0.759066,-2.79472,1.78125,
-0.150072,-1.92792,0.213969,
-0.111022,-3.49297,-0.251642,
0.0772594,0.277254,1.92913,
-0.995991,3.07149,2.48463,
-0.683513,2.62904,1.5964,
-1.07874,0.102691,2.77601,
-1.23805,-1.32963,0.74568,
0.656668,-5.3476,-0.132764,
-0.984421,-2.48619,3.43645,
-1.12173,4.16996,3.15784,
0.502997,0.890911,0.253979,
-1.05864,-0.0532827,1.06907,
-0.242514,1.95793,2.58827,
-1.13559,3.28097,1.19344,
0.352341,0.148097,0.770092,
0.104383,-2.548,0.765806,
-0.515674,-2.68304,0.986239,
-0.849836,0.30669,2.20762,
-0.674349,3.21835,2.17186,
-0.467875,0.698463,1.88615,
0.259431,-3.89945,0.3561,
-0.394272,-2.09906,-0.185212,
-0.582325,0.301481,0.69681,
-0.734053,-0.232621,1.67258,
-0.627087,3.90753,1.43454,
-0.720356,2.64831,1.49163,
-0.811985,-0.949696,0.749825,
0.43083,-3.06348,1.51179,
-0.312194,-1.12028,0.106864,
-0.86134,0.561842,2.65292,
-0.734013,3.59773,2.66377,
-1.03181,-1.06896,0.414136,
0.386303,-5.48378,-0.07488,
-0.95221,-2.70938,2.30271,
-0.553767,1.80811,1.86732,
-0.790221,-0.528388,0.773263,
-0.877571,3.53642,1.74568,
0.00559455,2.0835,1.87062,
0.148256,0.180932,0.816165,
0.52231,-2.1943,0.632136,
0.15966,-0.175295,2.23414,
-0.535134,-2.90191,1.20755,
-0.312829,-1.47419,1.86881,
-1.32045,3.51586,3.18529,
-0.501277,3.27539,1.26701,
0.105321,-1.48027,2.13604,
-0.862541,-1.97279,2.46718,
-0.840759,0.450357,0.981812,
0.399555,-2.98863,-0.169771,
-0.356095,-3.39515,0.670986,
-0.591971,1.25601,2.64426,
-0.494465,3.03359,2.58658,
0.09085,-0.485797,0.394107,
-0.453221,-0.86068,1.11014,
0.723611,0.964638,-0.401475,
0.0804256,2.55613,0.397101,
-0.451197,2.53581,1.07774,
0.401833,-1.32642,-0.425504,
0.536621,-3.00113,-0.199428,
-0.70978,1.33752,1.08633,
-0.413293,0.680072,1.86051,
-0.332412,0.183472,2.11802,
0.0428558,-1.06176,0.983517,
0.101849,-3.75478,0.412718,
0.11421,-2.88742,-0.908423,
-0.678335,-1.26623,1.42612,
0.190696,1.72649,1.65061,
-1.06931,3.07255,2.79886,
-0.6079,-0.310337,0.909048,
0.889434,-3.87787,-1.01562,
-0.828879,-0.91849,1.36633,
-0.703003,-0.330011,2.21798,
0.460206,-2.4458,-1.3633,
-0.536421,-2.61221,0.147176,
-0.145097,0.923243,2.66399,
-0.713487,2.23809,2.50746,
0.540896,-2.19684,-0.294472,
-0.517157,0.806616,1.27933,
0.556829,1.50357,0.909311,
-0.716772,1.93931,3.11886,
0.0347937,0.538214,1.70465,
-0.304652,-3.13856,0.778924,
0.285445,-3.72283,-0.281893,
-0.529631,-0.337459,2.6301,
-1.19294,3.35999,2.0175,
-0.497453,2.1651,0.159654,
-0.404854,-0.0969424,0.494439,
0.0170472,1.10756,2.69727,
0.121942,-2.38235,0.589031,
-0.491605,-2.2158,1.86306,
-1.02125,2.65371,2.00649,
-0.182076,-0.524225,-2.04889,
0.0187512,-5.0684,1.73571,
-1.99831,5.31755,4.29646,
-0.628716,3.25969,2.09804,
-0.393912,-1.46997,-0.485593,
-0.195143,-3.83925,1.0474,
0.586069,-1.23767,1.14449,
-1.06265,0.844026,3.96788,
-1.1061,3.88926,3.51575,
-0.40711,2.40708,0.23715,
-0.442713,-1.05033,2.06599,
0.543473,-0.763337,1.30031,
-0.179453,-3.56072,0.74721,
0.572084,-3.71833,-0.956056,
0.574219,-0.953217,-0.0200394,
-0.725665,2.16342,3.05167,
-0.565987,2.22675,2.81327,
0.789306,0.0574309,1.28398,
-0.501647,0.104263,1.63116,
0.170589,-1.52933,1.24412,
0.482845,-3.12329,-1.55789,
0.49814,-3.54289,-0.735041,
-0.0478199,-3.83059,0.899056,
-0.509234,-2.83529,1.40223,
0.634186,0.810121,1.08387,
-0.978038,1.51422,3.66549,
-1.48876,5.09244,2.62949,
-0.34549,3.22393,1.20102,
-0.50282,1.22444,1.95139,
-1.0281,4.37348,1.90259,
-0.014994,1.21545,-0.936966,
0.320523,-2.65565,0.935571,
-0.589036,-1.50974,2.21749,
-0.580159,-0.998413,0.19866,
-0.401833,-1.49904,2.16488,
-1.04954,-4.22531,2.46681,
-1.02201,-1.42914,0.429924,
0.49792,-3.93275,-2.37436,
0.277851,-3.83574,-1.16392,
-0.913002,0.708435,3.89994,
-0.39665,1.53769,0.988027,
-0.670577,1.75561,1.95648,
-0.439256,-0.174725,1.09196,
0.856495,-1.80382,0.775421,
0.0184041,-3.73212,-0.34806,
-0.978537,-0.612169,0.0976937,
-0.239462,-3.12472,1.38575,
0.198141,-3.69279,0.614638,
0.289721,-0.70303,-1.16296,
-0.148034,-1.90824,1.85108,
-0.714884,3.14816,3.0611,
-0.742536,-0.628817,2.71648,
-0.422271,-1.48351,2.72852,
-0.780131,-2.50895,2.0042,
-0.0483209,-1.76178,-0.325091,
-0.0104753,-3.09691,0.270244,
-0.26052,-2.47279,0.90739,
-1.15993,3.9626,2.93283,
-0.0307154,-2.64265,1.64294,
0.0639351,-0.832893,2.22561,
-0.878405,2.61201,1.74805,
-0.73342,3.0445,2.08677,
-1.0987,-0.232613,0.066162,
0.45302,-0.254084,-1.15113,
-0.11978,-0.346794,-0.350127,
-0.621765,0.332245,2.17195,
-0.804637,-0.32961,1.58504,
-0.406271,-2.1742,1.09371,
0.522624,-4.49889,-0.736247,
-0.925163,0.289977,2.94652,
-0.269038,-3.44588,2.37161,
-0.63832,-2.06693,1.77467,
-0.762006,2.22467,3.01311,
-1.27317,3.82565,2.92756,
0.230686,1.74297,0.0299423,
0.392333,-2.20695,-1.23432,
-0.238193,1.56169,2.09603,
-0.471675,1.10892,2.13242,
0.122748,-3.83276,-0.390208,
0.462681,-2.94735,-0.387689,
0.32581,-0.735933,1.02869,
-0.990715,0.0624947,1.20279,
-0.280242,-1.3196,1.4262,
0.556409,-6.27365,-0.655488,
-1.31414,-1.69579,-0.117397,
0.603949,0.239613,0.338444,
-0.0951742,1.55329,2.65247,
-0.901901,-1.58672,2.65941,
-0.0600508,-1.26882,0.295437,
0.241739,0.696413,0.572539,
0.230714,-0.916675,0.769161,
0.463877,-3.76155,0.912681,
-0.877838,0.112211,2.88386,
-0.680727,3.42152,1.52792,
-0.24292,-2.63154,1.59543,
-0.577487,0.0773153,2.54903,
-1.02102,2.49943,2.69423,
-0.722559,2.98353,2.43974,
-0.216389,0.913674,2.61047,
-0.0884978,-2.13905,-0.268798,
-0.181289,-0.585302,1.49264,
-0.706464,1.14153,3.11878,
-0.511359,-1.71328,0.90604,
0.332235,-5.19103,0.0147176,
-0.770026,-2.50635,1.74933,
-1.17944,3.69561,2.9326,
-0.113857,-1.25964,2.17834,
-0.637217,1.5505,1.46155,
0.502305,-1.61866,-0.717829,
0.774177,-4.03806,-0.290617,
-0.716065,-1.61917,3.35486,
-1.32321,4.28521,3.94002,
0.295737,-1.27077,0.37076,
0.343215,-1.84197,-0.147155,
0.339342,-3.19861,-0.410557,
0.651456,-0.0642431,-0.180906,
-0.369466,3.6625,1.59346,
-0.974474,1.98059,2.89065,
0.0495153,0.920822,2.17771,
-0.482936,3.35441,2.59455,
-0.421769,1.72603,1.47118,
0.212813,-2.93756,0.906668,
0.434853,-2.92795,0.839782,
0.674775,-3.58092,-0.867974,
0.278241,-1.66435,0.764685,
0.442517,-3.31118,0.521163,
-0.528215,-2.26383,0.643346,
0.0401057,1.48375,1.8158,
-0.0951032,2.16246,2.16737,
0.163337,1.55753,1.65216,
0.221859,-1.91814,1.27546,
-0.573823,-2.63783,2.5192,
-0.634703,-1.16655,0.484076,
0.515787,-1.11986,-1.52682,
-0.26302,1.26567,1.71835,
-0.792321,3.74734,2.13643,
0.306617,-2.59704,0.152205,
0.469964,-3.167,0.819664,
-0.639282,1.20484,0.574134,
-0.611639,2.15762,1.62004,
-1.22246,2.42846,3.4952,
-0.00613239,0.16061,1.89608,
0.129355,0.337837,1.65425,
-0.157785,1.0635,3.09516,
-0.996228,1.28589,1.93773,
-0.744523,-0.593356,0.29421,
0.366291,-4.46746,-0.108277,
-0.297596,-3.45911,1.06217,
0.375327,0.455161,1.4255,
-0.38907,-2.26766,-0.403115,
0.41507,-4.08759,-0.78685,
-0.325407,-3.56662,1.08085,
-0.244673,0.0933024,2.45031,
-0.634347,1.67865,1.24414,
0.00349394,-0.359029,2.38749,
-1.3519,1.25852,4.37628,
-0.873899,3.94063,2.19589,
-0.563256,-1.47448,-0.673793,
0.137873,-5.17166,0.419965,
-0.518684,-3.68126,0.787147,
0.384801,0.734308,1.53175,
-0.940805,-0.652517,0.252098,
0.0488731,-4.04886,-0.604339,
0.109562,-4.96651,0.662715,
-0.231708,-2.36146,-0.563869,
0.508839,0.568136,2.32241,
0.481217,-0.811845,1.8269,
0.546577,-2.41008,0.97451,
0.524636,-3.56874,-1.43945,
-0.192767,-1.08071,0.200833,
-0.741844,1.07726,-0.306286,
-0.760678,0.934516,1.45878,
0.612592,-0.620211,0.397105,
-0.923124,1.75733,2.76044,
-0.777505,3.53481,2.47846,
-0.819036,-0.743809,1.86185,
0.448093,-2.45172,0.330531,
-0.250827,-2.9443,0.338911,
0.314778,0.445453,3.06023,
-0.0223826,-1.30251,1.22824,
-0.564574,-1.7085,-0.0548849,
-0.128581,-2.63767,0.0456884,
0.930208,-4.47803,-3.07472,
0.175985,-0.229022,0.0425007,
0.251396,-2.75253,1.43133,
-1.00829,-0.903199,2.61717,
-1.53548,4.05708,4.21496,
0.260606,0.829375,2.60733,
0.655391,-1.88903,-0.91308,
-0.826529,-0.44947,0.0647568,
0.645332,-1.49805,0.478879,
-0.0378453,-1.60525,-0.553162,
-0.0764404,-2.1509,0.822298,
-0.732523,-2.44243,1.23431,
-0.392542,-0.0533731,2.75391,
-0.281343,3.52322,1.51525,
0.590589,-0.336465,1.52316,
-0.159101,-2.13897,0.511525,
-0.549618,-2.60304,1.11521,
0.255269,-3.97119,0.327764,
-0.30652,-2.48953,-0.239868,
-0.457066,1.78141,2.47513,
0.694143,-1.24612,1.55195,
0.425609,-1.8583,0.07808,
-0.52468,-2.46875,0.0696685,
0.500835,-0.702332,-1.23473,
-0.467249,2.01585,1.28397,
-0.757833,3.74088,1.54297,
0.00583311,2.12329,2.7046,
0.36044,0.375492,2.52183,
0.0314377,-2.21235,-0.459173,
0.52107,-3.49726,-1.52975,
0.415593,-1.05549,-0.600383,
0.212368,-3.88671,0.653716,
-0.299618,0.814292,3.76846,
-0.27018,2.09077,2.65347,
0.157893,-3.70083,-1.10991,
0.646284,-5.08617,-0.982674,
-0.275124,-2.23123,-0.37077,
0.559314,-0.593882,1.28449,
-1.22595,0.477089,2.48497,
0.0890964,1.47685,1.92738,
-0.0909743,-0.306122,2.06465,
-0.342161,-0.567514,2.25646,
0.204578,-3.47931,0.686892,
-0.308949,-3.09649,-0.60295,
