2.22194,-5.93793,-2.75144,
-5.68597,5.85105,-0.870415,
-0.487058,-5.76915,-4.05496,
-0.475514,-0.994458,-6.07663,
-5.69502,-3.20074,8.37551,
14.7251,-6.1354,-17.0845,
1.3153,18.433,-13.6405,
-2.82734,-19.9664,9.66995,
3.41837,7.13797,-10.6542,
-4.18079,-16.6756,10.3519,
10.4019,-5.86838,-16.6204,
-14.8824,5.30322,14.2823,
2.2443,-15.7893,3.82693,
-12.3948,10.9751,-20.0079,
9.12329,-8.4998,-9.66994,
-13.3576,8.10388,8.16762,
-3.60333,1.05224,-10.293,
8.45327,-10.7513,-0.705697,
6.0974,-10.0905,3.67414,
-10.6849,9.41098,-18.6766,
0.519736,-12.3204,-0.264431,
0.662206,11.6253,-11.9452,
7.4455,-8.16699,-6.84533,
-11.0285,8.2821,2.81017,
3.39451,-15.7743,-8.7985,
-3.72048,19.7507,2.47089,
4.00231,-14.1711,-15.2463,
-8.73315,17.7991,12.0119,
4.07814,7.30227,-11.3156,
-6.77056,-16.432,12.8712,
7.15648,-8.3561,-4.32862,
-11.63,9.38542,0.982394,
4.09358,-13.6624,-16.0098,
-8.72417,18.1726,12.3135,
10.921,-4.88513,-18.7006,
-15.101,4.85555,14.8774,
-13.4152,3.3808,16.1565,
5.60135,-19.7675,-13.774,
7.12036,-10.9594,2.48057,
-12.1293,10.6846,-20.456,
0.302965,-7.86288,1.50205,
6.56799,4.97966,-12.9761,
-1.58904,0.246315,-9.8575,
2.02162,-13.1567,3.82675,
6.37461,-10.3682,3.23829,
-11.5615,10.1861,-19.0244,
2.58178,-14.053,-14.0528,
-7.69902,19.5131,11.5496,
8.2414,-8.99797,-5.58342,
-11.8173,9.48205,1.82436,
8.03361,-9.90812,-2.96692,
-9.1872,12.3725,-9.96532,
-1.08344,-5.15362,-4.42835,
-0.319915,-1.88676,-2.14518,
11.6257,-5.63869,-18.7631,
-15.1394,4.88858,14.7263,
-1.32968,-6.90771,3.91207,
-0.333579,-2.0017,-22.2582,
4.18832,18.8954,-17.7693,
-11.9634,-15.491,17.339,
3.00241,-4.04552,-8.32254,
-4.59977,-3.26902,7.78449,
5.0833,-4.21742,-13.1153,
-9.70247,-2.80016,15.5939,
2.60235,-5.58926,-3.31755,
-6.21235,5.81744,-0.204675,
9.97047,-5.66741,-16.2586,
-14.3035,4.85454,14.48,
3.38709,-15.7678,-14.3433,
-8.33405,19.0898,11.4683,
3.75943,-15.0145,-15.1177,
-8.42692,19.2703,11.7887,
6.68294,17.0778,-18.911,
-14.2652,-14.5804,19.0149,
-1.08852,-7.52836,2.77824,
-0.39249,-2.08868,-19.9976,
6.88625,-10.7495,3.35013,
-11.7697,10.4846,-20.1745,
6.44867,-10.6202,4.30596,
-12.1158,10.7058,-20.0141,
-0.915656,-13.8337,3.57664,
7.84591,11.7304,-14.9878,
-0.313564,-7.6869,2.46322,
-0.773184,-0.483646,-17.3814,
0.776143,-16.8165,3.01067,
-10.6664,10.7155,-19.4398,
6.56624,-10.5356,4.19417,
-11.9926,10.612,-19.843,
-12.5192,3.07291,15.4296,
5.62317,-19.2971,-13.9766,
-10.2378,-13.5491,12.8014,
16.7262,11.8978,-24.2471,
3.79764,-14.4268,-15.5004,
-8.45108,19.6618,11.8714,
-12.9949,3.42901,15.5589,
5.50435,-20.41,-13.5278,
-13.3839,4.11815,16.3895,
5.42883,-19.6425,-13.6702,
6.74799,-10.7306,2.90223,
-11.8998,10.5364,-20.2402,
-1.83011,-3.40959,-6.25944,
1.71897,-5.92038,5.06036,
6.27334,-10.2338,3.5174,
-11.4244,9.98924,-19.1054,
6.46752,-10.3584,4.05193,
-11.8491,10.5574,-19.5248,
3.55445,-14.1886,-15.0075,
-8.41094,18.9914,11.8019,
6.64414,-10.468,1.53412,
-11.4304,10.141,-19.7183,
6.61125,-10.5215,3.92841,
-12.0634,10.6894,-19.9315,
6.84983,-10.734,2.62098,
-12.025,10.5511,-20.2416,
-1.8648,-16.6847,2.40622,
5.83907,16.1475,-13.8059,
-0.475185,-8.10949,1.93751,
-0.601936,0.964542,-14.2608,
-3.32242,0.280534,-9.34356,
8.88175,-10.929,-1.0876,
3.42687,0.39409,-5.7899,-11.592,
-4.45969,-12.4646,1.43945,14.1021,
-2.57506,-12.8953,0.260531,16.1598,
8.94947,9.8189,-12.1284,-14.331,
6.42403,16.9745,4.30273,-20.6888,
-5.21735,-17.6334,-7.91015,14.8192,
-0.629642,-4.5902,15.7733,-14.0249,
-0.902427,-0.459722,-29.6504,15.0685,
-2.01357,-3.18364,0.716735,-25.3199,
-1.49989,-0.136296,-3.97002,18.5014,
-5.51676,-13.9454,3.33507,19.7916,
1.88929,6.00428,-3.53555,-13.3742,
-1.2904,-19.5317,8.36072,17.2207,
12.3018,6.74435,-15.516,-13.9997,
2.65912,-29.3254,-12.4078,14.5505,
6.54908,25.4362,4.60492,-21.2987,
-4.22324,-15.2221,1.00721,22.3418,
9.82186,9.90514,-14.3255,-13.4388,
13.5031,11.9421,-22.7884,5.54579,
-16.5369,-13.3559,20.3721,-17.5537,
3.87305,3.99244,-0.554421,-16.5895,
-3.71419,-14.6319,-1.63728,14.6501,
-3.30533,-11.8236,1.47518,13.9336,
9.99932,9.09221,-12.786,-14.119,
0.513157,-19.2303,-10.279,13.6383,
7.60897,21.492,3.8579,-23.1544,
-1.69361,-17.9588,5.70389,19.1535,
10.847,6.48528,-13.3117,-14.3543,
-1.20934,-20.1599,8.59835,16.9795,
12.7904,8.27425,-17.9811,-12.655,
-4.22175,-14.4883,0.940874,21.435,
9.02988,9.6602,-12.889,-14.0214,
8.39269,-0.988909,-3.28745,-17.0447,
-7.46797,-7.92209,-3.03748,15.7406,
7.36458,20.6084,5.69669,-23.2898,
-5.30495,-17.2732,-7.40259,14.0611,
9.67981,19.3525,-11.2321,-11.3224,
-12.4172,-16.1143,13.5715,3.26083,
7.39988,21.6693,6.52115,-24.3717,
-4.48279,-16.684,-7.22649,12.9349,
-2.34868,-11.6645,0.310215,14.073,
10.3595,7.84985,-11.2362,-15.2,
-1.4327,-11.9997,11.9893,-9.81931,
13.0849,3.03473,-17.6433,-0.218872,
-10.5322,7.3736,4.34327,-23.9289,
8.56757,-10.5956,-7.94356,16.3186,
-3.71212,6.51736,1.52189,-26.2359,
-0.0175456,-14.313,-4.79439,16.8799,
-6.8661,-12.0278,-1.46061,20.7922,
6.32886,12.2812,-7.9075,-17.0759,
-3.66443,-17.049,-7.639,24.0268,
12.1081,13.2234,-0.691207,-26.0449,
-6.64992,-12.8992,-3.48784,23.3763,
4.32341,12.7716,-4.75283,-18.1537,
-7.62635,-13.1312,-0.856729,23.122,
4.6283,12.837,-7.65744,-16.3225,
6.57088,22.1002,5.64386,-23.7907,
-5.29974,-16.7591,-6.52668,13.8848,
-1.19811,-21.3007,9.10208,18.4786,
13.0264,6.15696,-15.9591,-13.1452,
3.42781,4.1094,-1.38506,-15.6386,
-4.08222,-14.1298,-1.63372,15.325,
-4.23968,-11.7268,1.70305,15.5308,
9.73625,8.97166,-12.6163,-14.2431,
8.95931,-5.77406,-16.1084,8.20921,
-14.0312,6.42955,13.0323,-23.7516,
-0.709808,-4.29904,2.52247,-16.4416,
-0.44495,-1.15219,-14.1488,17.5482,
6.20773,20.205,5.28361,-22.2585,
-5.67329,-17.3921,-7.45585,14.8479,
-1.16131,-12.1223,19.113,14.5288,
0.917795,2.93876,-30.2318,-10.9444,
-1.32256,-25.1191,-11.0725,19.6233,
11.1045,19.9307,3.66278,-26.4649,
-12.1913,-10.0134,17.7532,-23.7553,
12.5828,1.8097,-15.7981,16.4195,
-6.71073,-17.2568,-8.68079,28.5615,
13.4614,15.0959,-0.608656,-29.5471,
8.44312,7.80275,0.0700124,-18.5494,
-11.6071,-10.007,-0.896444,16.2193,
4.25817,6.02758,0.190786,-16.0286,
-4.20404,-14.4979,-4.46013,16.3105,
-4.66382,-11.2762,0.126121,15.7026,
6.73441,11.0609,-8.91489,-15.8624,
6.80438,3.51889,0.878171,-18.7974,
-7.83838,-13.3592,-1.02153,13.5652,
4.83736,5.73101,1.25646,-17.308,
-4.35449,-13.9671,-2.34066,12.0072,
4.9645,21.7122,7.25828,-22.5235,
-4.40631,-15.3571,-8.6976,12.8296,
1.33699,-22.5671,-11.9072,15.411,
8.90253,20.9299,4.39832,-24.3883,
-7.09729,-13.7379,-2.54503,24.648,
7.0825,12.2426,-7.90295,-17.9367,
9.68473,15.3209,2.75986,-22.066,
-6.20906,-17.6727,-6.13232,14.8423,
-0.919611,-4.35777,3.4458,-11.8355,
-0.48764,-1.37642,-23.3488,14.3716,
-1.10659,-4.22596,4.73966,-14.4948,
-0.468888,-1.19077,-21.8916,15.6402,
-2.55424,-11.1656,-1.72702,15.5253,
7.22723,7.85646,-4.22798,-19.4229,
-0.395649,-15.4934,2.79879,14.2066,
11.1104,8.12965,-14.2555,-13.2761,
10.9668,5.69803,-8.62008,-14.5985,
-1.82919,-19.155,1.64226,10.0158,
-7.42867,-11.9039,0.0302483,20.3683,
6.21916,11.7963,-8.87427,-15.9546,
2.84111,-19.1215,-12.4443,12.8722,
6.67559,21.7863,5.77802,-23.5011,
-6.57043,-13.3301,-1.99356,22.4652,
5.52858,13.0029,-7.84033,-16.7996,
-1.38871,-18.4825,6.29338,18.7492,
11.2333,7.71199,-15.7674,-12.9055,
-7.75586,-14.3204,-4.74654,26.7955,
7.27206,13.8675,-5.40253,-21.4118,
-2.15896,-17.3778,6.16963,11.2703,
2.78294,13.8869,-9.62819,-13.1835,
9.81033,-4.11919,-19.846,8.30833,
-15.4993,5.57869,15.1431,-25.1995,
6.0436,5.2152,2.19633,-10.8812,-8.22353,
-3.00271,-15.2196,-7.99871,11.8322,5.24383,
-1.9332,-11.9857,-10.4201,9.39698,15.5491,
7.95831,8.47135,3.03503,-14.1476,-13.1645,
1.32861,-11.4091,-12.1021,4.47895,19.2779,
3.78274,5.96819,4.05081,-8.28078,-19.4244,
-0.15605,-13.0333,-14.3499,8.27084,19.2594,
7.37976,9.36009,4.23066,-13.3203,-13.9883,
2.60264,5.54624,6.90933,-1.95674,-22.5542,
-2.47635,-11.0068,-9.42832,2.84014,12.2453,
-2.11339,-15.6226,-15.0824,11.3938,20.5852,
7.56822,10.5285,4.49429,-15.464,-11.5276,
-0.0398355,-12.1405,-15.8472,6.9984,23.1809,
6.05584,8.9177,5.41364,-12.2509,-15.0096,
4.47271,1.87135,-2.38471,-5.21565,-6.57437,
-3.84305,-11.942,-9.04571,10.6942,4.73536,
11.5548,12.3032,-4.56225,-24.4668,-18.6549,
-3.94957,-8.99761,-5.36967,13.823,6.31233,
17.1838,-0.41746,-22.2596,-12.1413,-0.932377,
-10.8671,1.06637,17.1024,7.16848,-7.77612,
5.82427,2.46226,1.09295,-9.47709,-11.5692,
-4.83171,-11.4453,-7.16369,11.7055,8.48166,
-5.58603,-5.27501,12.3363,6.42653,-21.5341,
7.27845,-1.71094,-17.4111,-4.7048,16.4958,
6.4474,-7.81657,-16.1962,-8.34748,12.6232,
1.05796,8.39007,11.6062,3.30421,-20.582,
4.98995,4.63188,-0.786757,-19.4816,3.48487,
-3.264,-8.75946,-1.40661,19.1875,-10.3155,
3.58878,-3.00397,-7.75939,-1.52069,4.54463,
-5.22496,-5.817,-0.265261,15.153,-14.5993,
2.85789,-13.3329,-11.1736,15.3916,19.7357,
-1.43822,8.02687,1.68201,-17.4895,-12.8044,
5.47489,-4.03383,-24.7323,-10.9713,16.6648,
2.54968,5.13568,18.4332,4.00927,-22.1387,
5.64107,15.463,9.98604,-12.1695,-19.9438,
-5.76123,-9.67521,-8.55216,6.53077,10.1076,
-12.2072,-9.78272,17.8507,2.35513,-29.4797,
13.4311,2.4316,-17.4681,-2.05395,15.3968,
1.17418,11.9775,11.2174,-5.18083,-28.0379,
-0.107703,-14.4224,-9.39325,4.17743,10.7865,
1.50638,5.36056,4.38218,-1.78967,-14.6504,
-0.843376,-12.565,-11.2437,0.636109,14.7319,
4.70814,5.26953,-5.31092,-5.68716,-6.78491,
-5.72598,-16.0132,-8.0391,13.9664,3.06299,
-1.15058,-10.1513,-13.0744,10.6798,17.5344,
10.0832,9.13474,3.10444,-18.6538,-12.1556,
2.78931,-12.0738,-14.1014,4.10923,20.8096,
3.23577,8.42123,4.28906,-7.77213,-19.9327,
-0.523621,-11.7787,-14.3627,6.85747,21.6555,
4.28109,9.34873,6.93835,-12.4822,-14.683,
2.01298,5.98832,8.09103,-2.46202,-22.3435,
-1.56655,-11.3915,-9.18555,1.81104,11.9928,
6.03599,18.3812,12.4788,5.47366,-23.3464,
-2.55472,-9.27249,-16.1373,-3.2845,10.7376,
12.7945,13.2184,-2.87984,-24.5192,-9.79144,
-7.25145,-7.64529,1.3878,13.5797,0.72683,
0.736393,-8.88458,-13.7359,-5.17566,24.9366,
-1.49423,6.57289,11.7198,-2.39386,-17.9045,
-0.293173,-10.7806,-14.0502,-6.26093,27.2232,
1.02032,9.14415,11.3519,-1.45154,-21.8085,
-0.380691,-0.343801,9.59293,-2.36655,-10.283,
5.53577,-7.97458,-17.3674,0.97745,9.46558,
-6.74065,-10.4143,2.51272,16.3851,1.89398,
10.5521,7.50816,-12.647,-15.1866,0.0493256,
4.19661,5.05534,6.64593,-3.06102,-19.1265,
-4.91597,-8.73025,-13.5637,5.52328,10.5835,
-5.8017,-16.2225,-3.23097,20.758,6.90837,
10.0615,9.04168,-5.56994,-19.9252,-1.85544,
-1.82437,-9.5481,-12.2142,9.66152,20.5167,
9.78307,8.54772,1.81641,-17.3326,-13.226,
7.96481,15.1484,-5.90389,-13.1254,-3.17698,
-8.13136,-17.5207,7.87978,5.14122,2.82008,
-1.88945,-16.5385,14.225,21.532,3.56763,
1.05423,4.62451,-19.449,-14.4015,-1.46118,
-10.8005,-5.87503,20.8615,2.48425,-27.2743,
8.53745,-0.334494,-18.7062,-1.45563,12.9961,
-11.7129,-14.1236,15.4197,12.3198,-23.9571,
13.8399,5.75716,-16.4294,-12.6867,12.981,
-3.89681,-15.6504,-7.34068,19.5598,19.7788,
8.24774,9.7448,-2.00526,-20.2991,-6.0005,
7.27297,-0.548926,-10.1249,-13.5059,3.29746,
-8.56788,-7.38969,5.82745,16.7422,-1.49893,
-2.35466,-12.4923,-9.50824,11.5995,15.146,
9.9633,9.49228,1.51789,-17.1911,-12.3032,
1.77388,8.86704,8.89943,-1.34876,-20.7073,
-0.883032,-13.5558,-8.60943,0.383471,12.7799,
7.0029,-5.70961,-20.697,-10.6065,15.0847,
-0.832057,7.20556,14.8608,4.50571,-20.4378,
1.31761,7.32714,14.9186,3.67249,-22.6385,
2.91797,-8.08087,-14.1364,-4.5162,9.02481,
2.92716,-8.78909,-15.7359,-2.14068,22.8466,
4.31592,4.22144,5.88857,-3.04442,-21.5612,
4.29342,17.5512,11.1493,8.6642,-23.9193,
-1.52129,-5.33332,-14.451,-6.12136,11.2506,
-5.37226,-13.4456,-9.65339,17.044,21.5374,
7.84949,8.82058,0.515292,-16.2006,-12.8506,
18.7429,14.5333,-19.842,-10.7627,8.64411,
-15.3643,-7.73642,6.4133,12.5658,-23.7494,
0.523661,-14.3491,-13.5645,7.37842,24.706,
0.859528,13.5759,8.01726,-15.4889,-11.6368,
0.61061,-8.22938,-11.9154,3.76756,11.6549,
3.00239,7.86054,8.08669,-8.48439,-15.7049,
-4.33676,-12.4634,0.359789,20.0936,-0.0765397,
9.6412,8.92259,-10.8895,-17.1154,-1.06031,
2.66996,5.80456,9.29279,-5.4798,-18.6593,
-0.93633,-11.9058,-12.5919,6.65425,9.4207,
2.70001,3.03921,4.95312,-15.5072,-16.9358,
-3.72533,-14.0013,-4.22179,18.0517,9.74716,
-2.35479,-15.3949,-15.1738,12.2067,19.0693,
9.51626,10.769,4.03457,-17.2018,-10.4993,
-1.17031,-13.3251,-13.6542,8.65115,23.0585,
1.5032,11.977,7.65283,-14.4238,-11.9002,
0.487936,7.87649,10.3385,-5.30864,-23.582,
-0.453127,-12.8218,-11.4752,4.0862,11.2573,
1.78388,9.11517,13.2108,-2.79449,-20.5178,
-1.79113,-11.6395,-6.00166,-2.03535,12.8425,
-1.40344,-12.1742,-16.2203,-5.87776,27.2117,
5.63745,12.7275,11.8428,-1.11845,-26.2833,
8.8622,15.3012,4.38979,-17.4337,-18.8784,
-1.94715,-11.0588,-7.17263,8.65677,6.62324,
6.40055,6.35781,3.15521,-8.52725,-13.1446,-5.94388,
-7.17999,-10.3389,-0.785962,12.7302,9.56978,1.22198,
-3.9508,-12.1338,-6.10034,9.96905,11.6302,4.20481,
6.33696,7.5589,0.183614,-11.6444,-11.9,-3.49004,
-8.81751,-9.45727,8.66733,12.9973,5.72016,-10.2725,
11.8545,3.13088,-11.8094,-12.9695,-6.77969,6.40289,
4.7669,8.64527,10.7617,-1.33982,-13.5473,-14.735,
-1.80535,-11.5082,-9.66611,1.48032,10.3133,4.15775,
5.45144,10.8246,12.3399,0.579079,-12.4073,-17.7353,
-0.54495,-13.9104,-9.49985,1.1207,3.23474,9.63203,
-9.40695,-11.9109,-7.1505,21.6474,12.1046,-1.63992,
11.6673,12.6223,-1.89663,-20.7939,-6.53248,1.0199,
5.11382,-7.48819,-14.0194,-6.16683,4.85213,23.4487,
0.728107,3.55583,3.27019,3.48581,-8.10427,-19.0877,
0.603819,-13.1744,-16.2005,3.21292,17.4192,16.0221,
3.80817,7.64324,4.41077,-7.7644,-13.6763,-9.5972,
1.94958,6.90124,12.8864,10.4646,-12.65,-24.0565,
3.7492,-9.82721,-16.1921,-2.56636,8.69359,5.36176,
2.35672,-7.0265,-12.1655,-16.0168,8.05435,24.5449,
1.03865,6.97183,6.85045,7.04431,-12.9542,-13.0384,
0.750121,1.6425,8.29066,7.62805,-0.866247,-17.9781,
2.91247,-5.01798,-12.6449,-11.5847,1.51498,10.4718,
-3.18188,-6.31428,-11.3611,-6.60561,13.7899,4.49844,
8.48107,7.94981,9.57477,4.02613,-21.157,-6.23654,
1.48793,5.64088,13.7603,7.6238,-3.95776,-17.8734,
0.988739,-11.1448,-13.4615,-4.43138,1.40528,9.48773,
6.15441,-2.57205,-13.3936,-10.7539,3.27663,16.5956,
-1.73855,-0.0091124,5.33899,6.88665,-10.0594,-16.5631,
3.58115,6.08733,12.2946,7.11835,-13.9613,-17.8332,
1.05628,-10.2931,-14.5357,-3.52759,9.69446,5.82137,
11.5621,6.86607,5.56373,-16.1703,-11.0148,-0.477313,
-5.76886,-9.63033,-3.19808,13.8323,11.7108,-12.8691,
8.25295,-1.26245,3.24363,-4.22316,-19.64,13.4657,
-7.9332,-9.2281,-7.62177,12.2823,13.4366,-18.316,
4.05062,10.0186,14.1918,6.06798,-18.3481,-14.7538,
-0.735557,-12.0697,-5.92904,-4.00596,2.50498,10.3692,
3.16487,-0.496612,2.37258,-0.855406,-10.6645,-4.50477,
0.159045,4.39797,-10.7653,-10.988,11.5687,0.307848,
-3.68026,5.75215,1.41629,10.1702,2.09282,-28.9154,
2.40675,-9.81846,-11.4107,-9.10896,3.25775,14.1981,
-4.79114,-6.843,5.20215,10.8356,3.87197,-13.225,
11.9345,1.6104,-13.4253,-11.3818,-4.08881,8.28323,
5.37033,-1.93419,-11.6306,-12.6329,1.60013,12.5132,
0.0552319,-0.173591,5.79702,7.95966,-4.63127,-18.9109,
2.16476,-8.1268,-11.4441,-10.0558,5.54712,17.6822,
1.13508,6.67367,8.12367,4.46877,-9.27035,-15.7544,
3.98647,3.28714,3.94159,10.6589,1.78746,-22.3333,
0.543265,-3.99721,-11.4967,-14.5493,0.383272,11.0486,
-2.2086,3.23674,17.8556,9.18555,-1.56953,-21.1155,
5.83727,-6.80771,-16.0121,-3.95763,0.751519,7.57619,
8.55662,-3.97247,-20.0045,-11.4321,5.16263,17.9234,
-5.22891,5.57801,12.1061,2.79129,-9.46906,-16.4703,
5.16846,6.39399,12.2142,-6.22678,-18.669,-8.74626,
-3.65228,-10.7079,-12.2322,4.66138,10.4519,3.44643,
6.00467,12.9575,15.1751,-0.954431,-17.4196,-15.4906,
0.478091,-10.8674,-7.51049,-1.30819,11.3652,1.27289,
5.79603,-6.16801,-15.1802,-5.84722,7.46599,23.6282,
-0.478773,4.21635,3.44355,1.41861,-11.5214,-18.3901,
-1.05046,-12.6809,-17.368,7.28306,25.3125,4.91904,
1.93872,6.86379,8.40648,-14.0506,-13.5241,1.36352,
3.10841,7.21005,8.19028,-3.38841,-11.8313,-8.28658,
-0.0272377,-12.3625,-12.78,4.70778,7.58775,4.31437,
3.886,4.18614,11.0152,-0.253024,-15.7399,-8.0921,
0.185219,-9.02017,-11.8894,-0.175771,11.3366,2.68,
4.48438,7.54638,9.43892,2.93728,-13.2442,-15.2597,
-1.66519,-11.8593,-9.25495,-2.95424,7.82792,7.12133,
-3.31883,-15.6149,-4.74835,18.5833,13.198,-9.80442,
6.49937,6.95823,-1.46799,-17.247,-6.60613,7.32434,
1.0474,-0.787387,8.23207,8.52709,1.35699,-18.719,
-0.461386,-8.33421,-13.1005,-7.65105,4.45969,12.5164,
7.45904,3.48088,-7.78872,-20.437,-11.0092,15.8411,
-1.91693,-1.46808,8.01246,12.9183,3.5238,-18.582,
2.40461,9.03641,10.9915,10.2246,-12.2828,-22.8313,
2.10783,-8.30281,-17.6016,-2.9593,9.02509,5.76675,
-3.12741,-12.8774,-16.3093,11.6879,22.6292,4.95908,
3.41386,8.93344,5.1658,-16.0688,-11.7573,1.26165,
-3.11653,5.18471,8.4322,6.74177,1.16936,-29.0723,
3.51489,-3.00058,-16.2047,-7.17441,-0.792462,9.03876,
8.05809,9.59307,12.4709,3.23397,-19.4569,-16.0675,
-1.51648,-10.3712,-8.1163,0.279528,3.77181,9.0134,
5.34147,7.08176,3.1881,-11.0673,-12.0159,-5.68033,
-4.75994,-8.82582,-4.17171,11.882,9.23288,0.76081,
-1.23574,-11.9372,-11.9365,3.32069,13.1169,9.02947,
3.47856,5.50796,4.8639,-2.95981,-14.7491,-7.72679,
5.55931,7.04419,10.8333,7.81056,-14.6523,-12.1259,
-0.67699,-8.8671,-15.7542,-3.31451,12.2588,1.60359,
-4.91104,-16.0781,-8.46523,16.0816,14.6171,5.7603,
9.97181,10.7358,0.0763158,-16.4528,-9.4318,-6.43246,
6.18401,7.89518,9.93478,4.23642,-17.3934,-10.6767,
-2.44315,-12.1302,-9.49144,-2.72896,12.4986,2.43258,
-8.32052,-12.3448,0.707203,20.1605,10.3451,-22.1699,
9.14607,4.83951,-7.59717,-13.797,-5.20034,14.0474,
3.94005,9.12669,17.4375,4.81247,-14.1947,-18.391,
-2.03653,-13.5985,-11.3771,1.99626,13.1867,5.5615,
1.27232,10.6866,10.1684,5.75826,-10.7216,-23.8351,
-1.78884,-12.1261,-11.5992,-3.26664,11.2859,8.66083,
5.27974,-9.67747,-13.5272,-2.31119,10.3505,23.5276,
0.411011,4.58545,2.89167,-0.15307,-9.37939,-18.2687,
2.10938,3.31951,13.6336,19.014,5.08568,-22.3158,
2.87144,4.20153,-18.5593,-9.98918,-2.5212,3.71209,
0.422838,3.61578,7.39917,4.63026,-5.95149,-15.4123,
-0.027822,-5.40018,-11.1,-8.97514,4.86298,11.4414,
0.917087,-7.76135,-12.5611,-6.91629,13.0969,12.3894,
2.54386,9.72139,8.99961,-0.0156298,-16.5374,-8.11884,
-2.01196,-8.12448,-7.67464,7.69245,22.6717,6.81215,
4.21064,4.42898,0.703143,-14.9048,-15.8681,-1.68825,
3.47892,-3.85676,-0.277272,21.0229,7.56092,-18.0996,
1.96685,-1.43697,-8.53713,-16.1291,-3.55346,13.0197,
3.1884,6.86697,14.1873,10.6249,3.66182,-22.1753,
0.616987,-1.96476,-13.1042,-13.8672,-2.9933,9.35673,
-2.64669,-15.7433,-15.1241,8.62671,19.4332,8.95275,
7.17977,6.7744,3.62699,-11.0256,-13.2857,-2.68877,
-4.61842,-17.6112,-12.1772,13.0566,11.9439,8.20392,
6.37846,10.6718,1.84341,-11.4771,-9.28321,-3.91542,
5.05711,-5.44426,-10.9177,-13.0556,10.4456,23.7704,
-2.65314,5.15179,4.01099,2.0391,-14.3661,-15.3519,
6.09696,8.20773,14.3835,-12.4075,-21.3551,-8.99521,
-1.31539,-10.4753,-7.52598,6.68635,12.2561,-1.28152,
6.26785,14.3207,17.3002,-1.71319,-15.4874,-18.2584,
1.62429,-13.093,-8.3277,-2.06494,8.94918,3.76816,
4.47598,-3.72163,-7.84156,-7.91104,-6.3555,0.799643,13.8916,
0.565312,-0.345896,4.1346,9.293,5.99126,-6.2124,-16.7536,
6.29592,2.93799,1.35963,-2.83212,-12.6392,-11.5341,7.57225,
-4.94526,-7.22105,-7.93844,0.656924,13.3562,7.41305,-12.8371,
6.56573,5.25602,-4.93572,-16.0392,-10.2361,0.497131,10.7409,
-3.80647,-2.4175,6.12655,11.5284,4.33785,-3.44737,-17.9705,
4.46457,7.31838,9.27975,7.86598,-2.24204,-16.0464,-12.1046,
-1.76394,-8.68707,-10.1048,-6.12084,1.47372,6.7841,8.24336,
3.7214,1.27886,-11.3961,-11.6848,-5.41991,11.6134,17.3778,
-3.03507,1.78608,11.1083,8.32567,-2.66224,-12.6485,-12.0008,
1.03412,-6.23207,-15.6012,-13.3071,9.27641,18.0009,7.24918,
1.40722,5.24384,8.3413,5.23238,-12.6792,-11.1377,-1.79692,
4.56013,-1.24639,-13.9124,-16.4322,-12.2954,11.6732,15.0914,
-0.251077,1.97924,10.8333,7.50356,1.4976,-11.1396,-8.20053,
0.723139,1.42084,6.0063,11.4927,8.51897,-13.811,-22.3997,
5.23006,-6.69142,-9.13653,-11.6341,-2.84859,9.42565,7.39443,
3.70936,-8.62368,-13.754,14.0207,17.6439,-6.42554,-20.8179,
0.791509,3.34953,2.07035,-15.3276,-5.50515,4.54487,12.3889,
7.05465,2.05753,-8.27532,-15.9489,-8.29468,3.25099,15.5322,
-3.95293,-4.00403,4.62863,8.96493,9.01377,-8.45782,-13.7206,
3.69525,-2.62198,-9.12782,-9.28012,-0.886907,10.1171,5.24465,
-1.68381,0.732412,11.0748,5.83686,-3.76517,-14.1847,-4.96987,
5.81289,2.01824,-8.13778,-13.2893,-7.89714,2.7864,11.7222,
-2.67545,-1.25672,10.4759,11.2123,3.03114,-10.0421,-9.88395,
2.34805,-6.02715,-16.8826,-5.87862,10.2515,11.1326,2.41882,
1.92329,4.42025,9.47266,2.95201,-15.5547,-11.1087,0.271077,
6.61974,7.8026,-4.3489,-17.6989,-10.4329,-1.02698,10.9734,
-5.01526,-4.78421,8.82074,12.2989,6.24771,-5.43306,-11.0222,
7.16084,9.90988,12.0517,-3.18032,-19.9144,-11.8367,-0.368255,
-0.808617,-8.55472,-6.49649,2.5182,12.2406,4.43706,-6.2033,
0.432682,-3.47862,-1.39454,14.2953,9.9745,-16.3426,-18.2613,
5.3512,3.44087,-5.88281,-16.0461,-1.88251,11.4262,5.40245,
7.82486,10.3895,7.18432,-3.46891,-22.7946,-11.2249,10.8836,
-9.73069,-9.10932,-2.97555,6.79445,14.3206,2.90781,-16.3695,
5.28355,-2.98222,-11.2415,-12.4599,-5.02049,10.005,22.9531,
-0.641671,4.8413,6.33754,5.4307,-2.24249,-13.1675,-14.7204,
6.47441,4.37152,-3.23915,-21.4165,-13.6051,-0.78289,19.0726,
-3.22247,-4.46422,4.07277,12.1761,9.25546,-6.07825,-11.5487,
-1.08132,-10.5852,-8.69283,16.922,13.8584,-14.8158,-17.5863,
6.72684,5.36206,-0.65155,-16.4771,-3.83596,11.9167,6.53996,
3.91481,-0.145253,-4.76616,-9.33092,-7.75976,1.08151,12.7297,
-0.61594,2.28879,6.14177,8.81759,4.60149,-8.2711,-17.1986,
8.84286,5.74139,1.82485,-13.2636,-7.25972,-7.70629,-0.329697,
-7.24334,-7.55511,-1.81545,13.0535,3.84276,6.29401,-4.29781,
0.794421,2.0523,4.10552,7.71405,7.73949,2.71135,-21.006,
0.161939,-7.27326,-3.22026,0.796108,-14.7445,-1.98799,11.8423,
2.30998,4.44476,8.93713,8.3283,6.25095,-16.0721,-11.7843,
-0.64115,-4.70746,-12.3999,-8.4542,-3.3893,6.27768,6.79098,
-2.34486,-9.01368,-12.6058,-4.39671,17.5175,14.9325,4.05875,
5.45885,5.70092,7.8971,-6.00794,-15.0244,-7.25893,-0.888207,
3.38604,-10.6687,-9.43029,-7.27798,-2.93528,14.0413,21.6032,
1.89219,8.49207,5.62303,1.68648,-3.95875,-11.7415,-13.721,
6.38909,8.89537,15.6892,3.12128,-8.10567,-17.0606,-12.2111,
-0.107286,-11.1971,-8.11497,-0.972768,1.44009,4.09715,8.43463,
6.43677,-1.7366,-19.4214,-11.417,1.79662,10.1499,7.05253,
-2.596,1.75564,10.403,10.1663,-7.32569,-9.10109,-8.67076,
-6.0696,-12.2976,-9.53165,10.0361,16.9043,19.3189,8.20871,
4.79214,6.12357,-1.75554,-7.6921,-9.57961,-10.6908,-3.36888,
4.06506,-3.88518,-16.6792,-13.6966,-5.94223,13.4899,20.26,
0.669745,5.96951,10.2957,8.09067,-2.57942,-14.5464,-8.53272,
0.928286,0.0480238,7.98812,7.52071,0.675993,-9.23019,-11.8458,
4.03907,-6.99753,-13.4812,-6.36094,-4.14971,7.9519,6.86211,
-2.1208,-9.8064,-10.7321,6.40838,11.9856,14.3269,-2.09138,
7.42941,4.12105,2.07775,-6.80915,-13.4784,-8.83626,0.948604,
4.8794,4.70511,8.95063,-5.09431,-16.5985,-10.4883,4.45636,
-2.38,-11.3446,-8.91473,5.8539,12.1797,3.64323,-1.99202,
1.16892,-3.18277,-8.34487,-12.3243,-7.3794,15.542,16.4484,
4.44625,5.01516,6.59454,7.19287,-1.28004,-18.2968,-8.73166,
8.47371,6.24944,8.36311,4.62582,-16.682,-12.7561,-0.179703,
-2.08482,-12.1165,-8.26667,-1.26782,11.7838,6.67005,-3.98594,
0.404238,-10.5699,-14.1036,-9.09588,15.0088,17.8599,3.28313,
2.75732,9.99625,8.85122,0.576717,-15.2518,-10.8053,-1.74727,
1.74928,-2.31147,11.9103,18.8809,5.73563,-8.05403,-17.2742,
3.74895,-1.60885,-17.2569,-11.5686,0.758643,9.07193,4.55735,
-1.94611,2.99715,15.5653,0.491409,1.12685,21.4517,-16.0527,
2.36864,-4.51396,-6.87514,-2.34944,-12.9108,-14.4769,16.4168,
7.01103,8.91055,15.9815,-2.60694,-17.4419,-14.7597,-1.62747,
0.23796,-8.7127,-10.0957,3.04982,12.568,5.57701,-6.36444,
0.467869,-5.12079,-14.2303,-14.5066,10.7553,23.8073,5.65688,
1.65132,4.9339,9.29093,4.58584,-14.9614,-12.8546,-0.938581,
-1.56035,-5.68449,-5.15271,-0.00517501,10.098,7.19045,-7.26407,
3.55629,0.991589,4.846,0.160953,-14.4579,-13.7806,4.56339,
2.7258,2.56143,4.86663,8.14358,5.81175,-7.12027,-15.8915,
-0.733639,-4.37666,-8.62672,-13.0242,-4.59027,10.3459,7.5432,
4.71441,-2.88647,-10.4046,-10.4122,-5.18012,9.81816,14.5656,
-1.38447,2.13973,9.24466,4.53827,-1.4872,-11.6041,-13.437,
4.82984,5.06784,9.86662,12.9679,2.83235,-13.1405,-15.6461,
0.948549,-5.95375,-12.6111,-9.82841,-1.20059,8.46419,4.37134,
-3.59559,-1.30345,5.55011,10.7655,12.3909,1.7937,-20.6568,
1.47687,-4.83,-9.40632,-6.54526,-6.63782,2.04842,18.5012,
6.52316,9.87628,14.9261,7.55499,-6.2972,-17.7631,-14.3824,
-2.49002,-9.35787,-12.4549,-3.22913,6.77749,6.82705,3.04431,
6.56296,-0.746641,-8.20788,-12.0666,-4.22145,10.787,20.4876,
-0.763886,1.82541,1.95481,2.89008,1.93453,-15.0157,-15.708,
-5.89672,-13.6112,-12.5113,8.54373,19.2521,11.3707,-15.2069,
8.21561,6.9076,1.50982,-10.0536,-11.4164,-4.86731,8.01205,
4.57251,-3.0853,-18.8892,-13.6786,-1.95294,12.9302,19.8154,
2.52648,0.22044,2.62453,8.33238,-0.808655,-13.2556,-7.93982,
-0.215226,-11.9592,-16.0145,-0.306235,18.2515,19.5506,-0.00699154,
3.92964,4.90533,9.43681,-7.66824,-14.6287,-7.76824,2.98024,
-1.8069,-6.97063,-5.18589,10.8151,11.6364,1.40313,-9.06193,
4.00395,3.89761,-0.000608279,-14.6126,-10.0201,1.35403,9.83915,
4.22566,2.31592,-3.8612,-12.7737,-8.62164,1.03154,13.7999,
-2.70751,-2.81073,4.66473,12.0666,5.14775,-5.89035,-14.2153,
-1.63576,-8.64916,-11.483,-0.51418,6.82943,17.5369,9.69788,
5.43865,6.11343,3.84304,-4.13969,-9.62801,-14.2176,-2.97026,
5.92613,5.39796,11.5134,-9.24293,-16.1065,-7.61192,9.67257,
-1.62433,-9.83616,-8.45105,7.51361,9.90365,0.828357,-7.19644,
-7.12959,-9.95658,-0.828206,15.1125,11.2648,8.01245,-21.8495,
8.70307,2.27142,-4.08093,-9.24539,-12.3511,-4.18543,13.8181,
-0.404778,-8.49339,-14.3424,0.574296,13.9765,21.4754,1.60925,
5.07376,5.73037,6.57344,-7.79308,-15.3512,-12.3243,5.80531,
-5.51578,-2.53035,5.1478,16.8443,13.3477,3.49887,-23.9296,
2.15764,-2.01453,-7.63743,-10.6779,-7.92806,2.66147,18.8799,
-0.9105,-14.3669,-15.3467,-3.0708,14.2467,14.0751,13.4111,
3.82394,9.28774,7.06333,-4.14401,-10.8258,-6.37615,-8.42433,
-0.456977,-12.4489,-17.4979,3.3309,17.4116,17.4585,3.51543,
5.01335,5.12911,3.55458,-5.42362,-15.195,-7.4362,-1.10357,
5.84926,-1.53512,-6.39074,-10.7965,-14.2982,1.67553,25.6705,
-1.6887,2.83922,6.02799,4.12714,8.41032,-9.63776,-16.8432,
